15 100
blue -0.0010849 0.00032152 0.00065149 0.0024535 -0.0004413 -0.001702 -0.00064644 -0.0021007 0.0010579 0.00014169 0.00030473 -0.0018924 -0.00014417 0.00033013 -0.0028053 -6.7415e-06 0.00042015 0.0032318 0.0023922 -0.00086774 -0.0018155 -0.0019375 0.0036669 -0.0014473 0.00193 0.00142 -0.0033046 -0.00037869 -0.00058775 0.0021447 0.0008702 -0.00048025 -0.0024614 -0.0031394 -0.0016471 0.0019611 -9.3933e-05 -0.0014633 -0.0030775 0.00064452 0.0022728 0.0015611 0.0010858 -0.0019704 -0.00056072 -0.00099285 -0.0017922 -0.00228 -0.00078656 -0.0014735 -0.0017134 -0.0024213 -0.00077463 -0.0011891 -2.7217e-05 -0.00064075 -0.001197 0.0021248 0.0039368 0.0023742 -0.0011507 0.0013518 -0.0019961 0.00020768 -0.0019224 -0.0021001 -0.0025759 0.0019629 0.00075045 0.00090156 -0.00079452 0.0033731 -0.0020867 0.0024162 -0.0038665 -0.00042288 0.0025906 0.00053165 0.0014405 0.0013026 0.00045754 -7.8935e-05 0.0027492 0.00032885 -0.0004856 -0.00082009 0.0020478 -0.0030533 0.00080875 0.0013779 0.00081218 0.0026082 0.0021007 0.00036661 0.0029893 -0.0034525 0.0012835 0.00082001 -0.0001524 0.00035636 
brown 0.00049111 0.0020359 0.0014286 -0.0017103 -0.00072211 0.0018421 0.0026334 -5.4116e-05 0.0021012 -0.00092993 -0.0020236 0.0001081 0.00059764 0.00087539 -0.00042822 -0.003209 0.0016483 0.0016036 -0.0016212 -0.00092462 -0.00015693 -0.0019327 -0.0016278 0.00029531 0.0022689 0.00027352 -6.894e-05 -0.00072233 -0.00055138 0.0010154 -0.0020267 4.9738e-05 3.4362e-05 -0.0021991 -0.00023092 0.0017517 -0.00081913 0.00158 -0.0010589 7.379e-05 0.0024797 9.2942e-05 -0.00087535 0.00079062 0.00089851 0.0011692 -0.00031784 -0.00067281 -0.0014027 -0.001878 0.0010426 0.0013527 0.0021345 -9.7906e-05 0.0013855 -0.0017002 0.0016807 -0.0029779 0.0016553 0.00011907 -0.0023157 -0.0014782 0.0013368 -1.1409e-05 -0.0016205 0.00058572 -0.00078826 -0.0014483 0.00039747 -0.0018291 0.00025865 -0.0010609 -0.0007054 -0.0017024 -0.0018134 0.0029184 0.00050067 -0.0011906 -0.00093465 -3.1776e-05 -0.00024009 -0.0013663 0.0008413 0.0017889 0.00092058 0.00043319 -0.0016229 -0.0019913 0.00075756 -0.00031147 0.0019672 0.0024536 -0.00033075 0.0013997 0.00051686 -0.00052875 -0.0027785 -0.00070979 -0.00033101 0.0035114 
iridescent -0.0014286 0.00033009 0.0012352 -0.00014783 -0.00025189 -0.0008034 -0.00016881 -0.00018074 0.00040855 0.0012884 0.0010647 0.0010244 0.0017528 -0.0010534 -5.8436e-05 -0.00073817 0.00073149 -0.00020362 -0.00079023 -1.1572e-05 0.00029117 -0.0010081 0.00044924 -0.0014383 -0.0021127 -0.00051294 0.00010088 0.0021177 -0.00036431 0.0011358 -0.00025826 0.00062833 0.0015677 0.0011161 -0.0018383 -0.0022278 0.00032329 -0.00070057 0.0011567 0.0011281 -0.0021533 0.00013518 -0.00076905 -0.00159 0.0015351 -0.00032452 -0.0006249 0.001227 -0.00052913 0.00068328 0.0015117 -0.0012892 0.00088576 -0.0011681 -0.00055015 0.00012477 -0.00011428 -0.00025128 -0.0010208 0.00015224 -0.00069029 -0.0015719 -7.1005e-05 0.00069165 -0.00012534 -2.7726e-05 -0.0012959 0.00061954 -0.00075757 -0.0011382 5.1749e-05 0.00033024 -0.00070257 -0.0023578 0.0020322 0.0014263 -0.00046307 0.00087207 -0.00016573 -0.0006774 5.0989e-05 0.0012415 0.0016465 -0.00055761 -0.0017408 0.00045256 -0.00107 0.0002183 -0.00082914 0.00097157 0.0011598 -0.00061101 -0.00072477 0.00050858 0.00064989 0.00015521 0.0014835 0.00092051 -0.0013606 0.00049836 
purple 0.0010917 0.0011747 -0.001087 0.00062671 0.0007498 0.0022019 -0.00053824 -7.2764e-07 0.0024105 -0.00129 -0.00062331 0.0012101 -0.0023735 0.00095812 0.00090015 -0.0014412 -0.0015794 0.00064157 -0.0011173 0.0003828 -0.00076634 -0.0014054 -0.00059237 0.00092643 -0.00082738 0.00046936 -0.00086197 -0.0013561 0.00025727 0.00030303 0.00033944 -0.0021352 -0.00032806 0.001675 7.2526e-05 0.00013708 0.0008902 0.00028729 -0.0015824 0.00022753 -0.00035389 0.0028196 -0.00053836 -0.00025093 -0.00127 -0.00088568 0.00017692 0.00068594 0.0011856 -0.00072073 -0.00038714 9.1054e-05 -0.001018 -0.0015309 -0.0019581 0.0017072 0.00065277 -0.0019851 -0.00042661 -0.0009848 -0.001344 0.00043737 0.0010234 -0.00084827 -0.0015462 -0.0027779 0.00084779 0.00029292 7.5921e-05 -0.00093098 0.0015235 -0.00046636 -0.0015058 -0.00032807 -0.00097065 0.00095624 3.7418e-05 0.0018284 0.00017374 0.00083077 0.00013343 -0.0015301 -0.00045527 0.00026522 0.0015417 0.00058666 -0.0010947 -0.0011819 0.00022363 -0.0016808 0.00022533 -0.00032989 0.00014868 0.0010784 -0.0018025 0.0023713 0.00029015 0.0019895 -0.00053422 0.00071936 
rufous -8.1092e-05 6.4011e-05 -0.0012776 -0.0005247 -1.8151e-05 -0.00054501 -0.00038181 0.00075889 0.0018102 0.00051529 -0.00019744 0.0008233 -0.0013144 0.0010427 0.00078289 0.0012833 0.00028342 -0.00013244 -0.0013577 0.0013165 -0.00040847 -0.0021192 -1.2688e-07 0.0023078 0.001089 0.0022143 0.0018606 0.0003194 -0.0019585 -0.00012078 0.0012919 -0.00056776 -0.0033687 -0.0026997 -0.0015304 0.0030577 -0.00026681 0.00062926 0.0017529 0.0015064 -0.00013357 0.00039156 0.0021805 -0.00032337 5.9441e-05 0.00065505 0.0011245 0.00247 0.00029618 0.0020312 0.0020533 -0.00026191 0.00040069 -0.0015912 0.0010767 0.0015077 9.7657e-05 -0.00032649 -0.00098032 0.00082771 -0.00098698 0.00073701 0.00087632 -0.0015889 -0.0014954 -0.00078351 -0.0022414 -0.00099367 -0.00092389 0.00049436 -0.0013939 0.0011469 -0.0016134 0.0021984 0.001521 -0.00046535 -0.0012003 -0.0031411 -0.0017892 0.00017316 -0.0021912 0.0017133 0.00016452 -0.0018535 -1.9135e-05 -0.0013941 0.0020408 -0.00066425 0.00076783 0.00024898 0.00026575 0.0011134 -0.0016303 0.00047576 0.00039246 0.001387 0.00059381 0.0016982 0.0018456 0.00032057 
grey -0.0011613 -0.0001075 0.00044497 -0.0018649 -0.0012134 0.0018329 -0.0012313 0.00080462 -0.0037642 0.0013187 -0.0027238 -0.00078396 -0.0017519 -0.00094158 -0.001601 0.0018573 -0.001245 -0.0010471 -0.0004226 -0.0030636 -0.00012657 0.002642 0.0023268 -0.00051584 -0.00051897 -0.0019984 -0.00074608 -0.0018245 0.00062545 -0.0014417 -6.4163e-05 -0.0019293 -0.00037223 0.00030344 -0.0010702 -9.948e-06 -0.0028653 0.0014313 -0.0010317 0.002424 0.00073911 -0.0015985 0.00050892 0.0013781 0.00039473 -0.0011548 -0.0023833 -0.0019809 -0.0024766 -0.0026886 -0.0029299 0.00010818 -0.0031379 -0.0035002 -0.0010404 0.00095528 -0.0016243 0.00054134 -0.00085842 0.00094243 -0.0024026 -0.0032273 -0.0012146 2.8571e-05 0.0011589 -0.00070197 -6.135e-05 -0.0014335 -0.0010864 0.0011694 -0.0038292 0.0019758 -0.0011627 -0.0046472 -0.004241 -6.316e-05 0.00036173 -0.0010594 0.0010397 0.00014031 0.001801 -0.0013013 -0.0001185 0.00035922 -0.00056665 0.0013291 0.00066464 0.00028679 -0.0002036 0.0015772 -0.0012289 0.00080828 -0.0015148 -0.0019671 0.00037356 -0.0034422 -0.0027245 -0.00069955 -0.0014019 -0.001117 
yellow 0.0011792 -0.0015013 -0.0012083 -0.0015957 0.0013446 0.00016388 -0.0008333 -0.00013515 0.00017257 0.0012333 -0.0013423 -0.002866 0.00093586 -0.00072917 0.00018694 0.0027463 0.0017505 0.0015179 0.00032858 -0.00047422 -0.00024247 -0.0011409 -0.0022083 0.0016595 0.0019709 -0.0010435 -0.00084028 -0.0015785 6.4546e-06 0.00044336 0.0010045 0.0012717 -0.0011107 -0.00078569 -0.00076821 0.0015447 0.0014135 0.0016042 -0.0013012 -0.00054285 0.00057531 0.0012642 0.00065659 -0.0028275 0.00093529 1.9151e-05 0.0012157 -0.0015285 0.0003627 0.000793 -0.00029768 0.00027221 -0.00070319 -0.00038548 0.0008845 -0.0010074 -0.0022321 -0.00075657 -0.0016636 -0.001131 -0.0014285 -0.0011924 -0.00031123 -0.0013936 -0.0018211 0.00046943 -0.00078686 0.00057897 -0.0003681 -0.00096852 -0.0024917 -0.00037258 -0.0035251 0.0011245 -0.0039088 -0.0003425 -0.00051988 -2.3343e-05 -0.0023109 0.0019455 0.0020734 -0.0018192 0.00040558 0.0010373 0.0005382 -0.0012171 -0.00082404 -0.00012639 0.00073543 -0.00073802 -0.00059353 0.00090014 -0.0019968 -0.0014386 0.001265 3.4571e-06 -0.00083556 0.00065991 0.0016047 -0.0012407 
olive -0.00094339 0.0021289 -0.0013831 -0.0028194 -0.00041056 -0.00080848 -0.0013685 -0.00024371 0.0018377 0.0021144 -0.0003646 -1.3862e-05 -0.00010506 0.0014373 0.0023099 0.0022295 0.00029831 0.00090571 -0.00060233 0.0017976 -0.0010821 0.0011301 -0.0016547 0.00283 -0.0021254 0.0019802 0.0010459 0.0030955 -0.0010808 0.00070063 -0.00079437 -0.0012529 0.0010704 0.00012308 0.00051756 -8.983e-05 0.0004849 -0.00083355 0.0010351 -0.00085421 0.001312 0.00030632 0.0001347 -0.0019339 -8.8803e-05 0.0019451 0.00020348 -0.0011401 0.0003365 0.00064225 0.0006432 0.00055802 0.00074321 -0.00018565 0.0011383 -0.0015073 0.00035607 -0.0010612 0.00043602 -0.0012126 -0.0020855 -0.0016611 0.0024251 0.0010952 0.0030222 -0.00019744 -0.0010276 0.00090181 0.00076555 -0.0015765 -0.0027836 -0.0022806 -0.00065786 0.0014812 -0.0032977 0.0014625 0.00014209 0.0035688 0.0010573 -0.0025474 -0.00064204 0.0021816 -0.00020587 0.0012214 -0.00059188 -0.0014156 0.00015234 0.00011966 0.00018294 0.00069298 0.00063649 -0.00010893 -0.0011199 5.5282e-05 -0.0011173 -0.0013148 -0.0035967 -0.0015485 -0.00033208 -0.00052154 
green -0.0036881 -0.00072475 0.0014636 0.0021122 0.00018343 0.0014133 -0.0010045 -0.00044185 -0.0014227 -0.00071913 0.00043437 0.0014689 0.0012532 0.00022854 -0.00082738 0.001313 -0.00064736 -0.0016501 0.00046645 -0.00053627 -0.0016755 -0.00065077 0.0010496 -0.00080166 0.00027837 -0.0018066 0.00055149 -0.0015051 0.0012088 0.00044137 -0.0004795 -0.0011551 -0.0014574 -0.00021953 0.0027436 -0.0015 -0.00050515 -0.0027785 -0.00060358 0.0013164 0.0018398 -0.0012321 0.001719 5.8036e-06 0.00014561 -0.002545 -0.00014543 -0.001888 -0.0021761 0.00031961 0.0037237 -0.00057056 -0.0012565 -0.00052082 -0.0024185 -0.0019495 0.0016214 -0.00050148 0.00035823 0.0025291 -0.0013693 0.0014035 -0.0024859 0.0012803 0.00073166 -0.0010886 0.0015578 0.0015426 5.2737e-06 -0.0011019 -0.0023234 -0.0019868 -0.0029579 0.00073641 0.0027943 -0.0020675 0.00020777 -0.0009214 -0.00031673 0.0012346 0.0038289 -0.00032618 -0.002356 -0.00095809 0.001234 0.00080238 4.4542e-05 0.00065755 0.0013688 -0.0015596 0.0017533 -0.0020211 -0.00074191 -0.00014197 -0.0021347 -0.0026009 0.0008382 0.00034579 0.00095933 -0.001652 
pink -0.00090615 0.0011267 -0.00087499 0.001879 -0.0027822 -0.00047373 -0.0010367 -0.00061452 0.0029748 0.0028359 -0.0017408 0.0013938 -0.00067265 -0.0021001 -0.0024787 -0.0033929 -0.00087737 -0.0026405 -0.0010394 0.001439 0.00061997 -0.0020401 -0.0006341 -0.00111 -0.00019596 0.00093199 0.0034485 -0.0014542 0.00077171 -0.00074437 -0.0030142 -0.00016591 0.00071409 -0.0020426 -0.001906 0.00031605 -0.001814 0.0022961 -8.5375e-05 0.0020852 0.0010966 -0.00012551 -0.0014691 -0.00032829 0.0016029 -0.0013322 -0.00010144 -8.898e-05 0.0016424 -0.0012541 -0.00051749 -0.0018684 0.0014813 0.0013565 -0.00088742 0.0012271 0.00036173 0.0011722 -0.00064332 0.00071472 0.00026646 0.00025274 0.0038094 -0.00014192 -9.4495e-05 -0.00052875 -0.0022094 -0.00052289 -0.00175 0.0028046 0.0043057 -0.00031253 0.0015731 0.00044888 -0.0013913 -0.0020869 0.0034256 -0.0014513 0.0015429 0.0014138 0.00056715 0.003182 -0.0038521 -0.0015754 -0.00089975 0.0010432 0.001056 -0.00089103 -0.0022889 -0.0015229 0.00034183 0.0028055 0.0012421 -0.0033721 -8.4151e-05 -0.00020227 0.00032056 0.00030968 -0.00069898 -2.3162e-05 
orange -0.001219 0.00092032 -0.00084236 -0.00051651 -0.0016842 -0.00018138 0.0019137 -0.00039833 -0.0010964 0.00068304 0.00083555 0.00097321 0.00047191 0.0017502 -0.0016179 -0.00090888 0.00013579 -0.00044836 -0.0025499 0.00099847 -0.0018597 -0.00070272 -0.00018659 -0.00098099 0.0013113 0.00018111 0.00097096 0.0016292 -0.0020015 -0.00071568 -0.00047328 0.00043842 0.0024165 -0.0020987 0.0015171 0.00018823 -0.00018907 0.0010366 -0.0016261 -0.00071712 -0.00079381 0.0012588 0.0015979 7.2506e-05 0.0010027 0.0015731 -0.0014615 -5.9423e-05 0.00028411 -0.00034774 -0.0033447 -0.00022532 0.0024457 0.0002576 0.0014716 0.00043462 -0.00086144 0.0020286 -0.0010384 0.001214 0.0015622 0.0010859 -0.0027622 -0.0002412 0.00027405 0.0015883 0.0023423 0.0021089 -0.0018096 -0.00020441 -0.0012517 0.0016751 -9.2452e-05 -0.0015585 -0.0012132 -0.0012437 0.00044171 0.0028003 0.00026804 -0.0013495 -0.0024263 -0.0022677 0.0015898 -0.00093416 -0.0014827 -0.00032564 -0.00063968 -0.0024306 0.0011731 -0.0015514 -0.0013272 0.00044233 -3.1277e-05 0.0016879 -0.0011957 -0.0012544 0.00045846 0.00069575 -0.00099654 0.00033325 
black 0.00073513 -0.00063696 -0.0015645 0.0013539 0.00066647 0.00032257 0.0020532 0.001935 -0.002694 0.001199 -0.0039008 0.00073459 0.00043299 -0.0016312 -4.938e-05 -0.00030803 -0.00035066 -0.00099452 0.00098047 -0.0010266 -0.0027164 0.0023314 0.0031437 -0.00074597 0.00025672 -0.0010018 -0.0011901 -4.1158e-05 -0.0016946 -0.0020618 0.0011851 0.0015928 0.00020811 -0.0020321 -0.0005152 -0.001656 -0.00068261 -0.0010377 0.0009959 0.00056354 0.0016106 0.00079166 -0.00030799 0.00079434 0.00022587 1.9435e-05 0.0003211 0.0028195 0.00067904 0.0036337 -0.00088296 0.0012523 -0.0011404 -0.00082796 0.00060482 -0.0005785 -0.00047023 0.00038188 0.0018657 0.0015238 -0.00020709 0.0035097 -0.0023251 0.0011327 0.00078748 0.0025137 0.00090275 -0.00067865 -0.0014871 0.0015037 -0.0034107 -0.0029018 0.00040686 -0.0023163 -0.0026775 0.00045327 0.00053086 5.9993e-05 -0.00045245 -0.0012988 0.00089868 0.0033163 0.00076154 0.00040004 -0.001042 0.00049442 0.001261 -0.0014482 0.0011167 -0.0011597 -0.0033387 0.0010236 0.00072598 0.00014128 0.00045362 -0.00045747 0.0015929 -0.00016466 0.00058743 -0.00076321 
white 0.00071671 0.0017145 -0.0016714 0.0015179 0.00082618 0.0018311 -0.003192 -0.0032846 0.0015847 0.00022558 -0.0045387 0.0006921 0.0015529 0.00012447 -0.00049834 -0.0011711 -0.0027085 7.7271e-05 0.0013228 0.0014887 0.0017581 0.0016161 0.0026553 -0.00025991 -0.00088947 -0.0021518 -0.00067458 0.00296 -0.0026723 -2.0451e-06 0.0025283 0.0015958 0.0016229 0.00078389 -0.0008436 0.0025211 -0.00069837 0.0011256 -0.0032561 -0.0022981 -0.0011164 0.00032488 0.002096 -0.00065379 0.00022779 0.00088309 -0.0015039 -5.9741e-06 -0.00050709 0.0013331 0.00053482 -0.00023826 -0.00033626 -0.00020824 0.0011017 -0.00028196 0.001076 -0.0010856 0.00080631 0.0011036 0.0026421 -0.000977 -0.00021261 -0.001613 -0.00036637 -0.0003827 -0.00012186 -0.00032019 -0.00053121 -7.4894e-07 -9.4042e-05 -0.00016249 0.0021625 0.00046896 -0.0013586 -0.00083466 -0.001694 0.0011147 0.00092848 0.0022494 0.00053082 -0.00039023 0.0016588 -0.0021736 0.0012235 0.00049125 0.00053755 -0.00049539 -0.0029379 0.00097712 0.00049799 -0.0015114 0.0016222 0.0010606 -0.0023657 0.00031051 0.0019431 0.0043068 0.00020521 0.0001936 
red -0.00087831 -0.0018539 -0.00023406 0.00070361 -0.0025563 0.0036461 0.0012808 -0.0014535 0.00072066 -0.0013839 -0.00074818 0.0014411 0.0035894 0.00085806 -0.0023306 0.0010286 -0.00057402 0.00033499 -0.0036885 -7.3153e-05 0.00049425 -0.0010727 0.0010685 -0.0012957 -0.00222 -0.0016697 0.0030973 0.0018224 0.0010245 0.0025217 -0.0026839 -0.00032848 -0.0021072 -0.0015087 0.0015776 0.00054908 -0.0017292 -0.00098936 0.0026904 -0.0029223 1.0848e-05 -0.00038834 -0.00093592 0.0024732 -0.0016957 -0.0031333 0.00037798 0.0025126 0.0047129 -0.00078679 0.0030511 0.00033433 -0.0016595 2.8592e-05 -0.0022471 -0.00079101 0.0011881 0.0029289 -0.0008633 0.00022505 -0.0028621 -0.0018289 0.0016781 -0.0021092 0.0022716 -0.00097679 -0.0020681 0.0026495 0.00081642 -0.00058793 0.0014884 0.0021918 -0.00022475 -0.0027754 -0.0036246 -0.0023367 0.0025959 -0.00075711 -0.0018203 -0.0010982 -0.00070328 0.0010948 -0.00015539 0.0029127 -0.0032137 0.00099887 0.00050089 -0.00081213 0.0026546 -0.0015482 0.0023446 -0.004249 -0.0035101 -0.0052601 0.00072125 0.0013764 -0.00024625 0.0006293 0.0032262 -0.0031978 
buff 0.00086429 0.0014637 0.0042825 0.0012704 0.00015093 0.00014691 -0.0033445 -0.0034405 0.0032355 -0.0014336 -0.0010277 0.00013131 -0.0009908 -0.00015171 -0.0010692 0.0011836 4.7804e-06 -0.0015984 0.00072451 0.0029166 -0.00032341 0.00059399 -0.00087026 0.00099231 0.0014693 0.00095324 0.0029018 -0.0014762 -0.00092006 0.0025714 0.0008096 -0.00095401 -0.0016847 0.00021353 -0.0012076 -0.00092323 0.00064311 8.7726e-05 0.00096866 -0.0033945 -0.00422 -0.0027086 -0.00029381 0.0001262 0.00066835 0.0016613 0.0015384 -0.00055214 0.00090454 -0.0020295 -0.0029864 0.0002518 -0.00073705 -0.00094383 -0.0011455 0.0028008 0.00063543 0.00077356 0.0012648 0.00025442 0.0019234 0.0016205 -0.0025439 0.0016194 -0.00089036 -0.0021218 -0.0016726 -0.0021569 0.00068793 -0.0030131 0.0027133 0.00026761 -5.6994e-05 -0.0021835 -0.0002171 0.00067999 0.0016076 0.0023886 -0.00072266 0.00021356 0.0029978 -0.00020189 -0.00089019 0.0038544 -0.0013292 0.00030685 0.0037641 -0.0010436 -0.0011549 -0.0011012 0.0031602 0.0017704 0.0030672 0.0013289 0.0011798 -0.0015509 0.0030703 -0.0014661 0.0029131 0.0021884 
